svm_type epsilon_svr
kernel_type rbf
gamma 0.020711826741986055
nr_class 2
total_sv 8
rho -0.4793258659817173
SV
-2.674449402332853 1:-1.4824554622229018 2:-0.5973675359036204 3:1.7282960802512382 4:-0.12824729401064427 5:1.308519040348795 6:-0.6705013554729853 7:-0.5650517632806349 8:-0.5647955184515897 9:-0.1262112305065398 10:-0.3485806171219809 
0.5331478113449719 1:-1.0549566777679253 2:0.5453319524796216 3:0.07787905345206989 4:0.12824729401064427 5:1.3706677280597543 6:1.8243874090776577 7:-0.016093597168532998 8:-0.5438586376870164 9:-0.22813349220278792 10:-0.7489973624085329 
2.5717732227472117 1:-0.6274578933129491 2:0.1603008727824009 3:-0.8887937765302881 4:0.3847418820319328 5:-0.13806072022124133 6:-0.6580269116502322 7:-0.607106256740483 8:0.5356870269615874 9:-1.1889180614268549 10:0.3637873916777716 
-1.395624852764981 1:-0.21374939222748815 2:-0.29818409030170484 3:-1.2188771818901216 4:0.6412364700532214 5:-0.0027837433037187984 6:-0.6705013554729853 7:-0.6378994813004837 8:-0.487726758637547 9:-1.420655785779848 10:-0.7399355973101102 
-4.714452447440442 1:0.21374939222748815 2:-1.0069104695031188 3:-1.022595442631508 4:0.8977310580745099 5:-0.3034107565811195 6:-0.6705013554729853 7:-0.6378994813004837 8:-1.0700320492374105 9:0.6444597551473007 10:-0.752773097866209 
3.6108350951695933 1:0.6274578933129491 2:-1.4330820328672897 3:-0.15789480751924226 4:1.1542256460957985 5:-0.01956388898567669 6:0.11850721631615557 7:-0.6199665091402364 8:-0.7777766140927278 9:0.11957520638066918 10:2.315389535041402 
1.887132584374937 1:1.0549566777679253 2:1.6353814846968082 3:0.9178234331623641 4:-1.6672148221383756 5:-1.9273214394197604 6:-0.6642641335616087 7:2.197030995461967 8:1.8905924435658192 9:1.8585148940673473 10:0.27649238789629993 
0.18163798890156238 1:1.4824554622229018 2:0.9945298186169048 3:0.5641626417054043 4:-1.410720234117087 5:-0.28804621989702184 6:1.3909004862369834 7:0.886986093468888 8:1.0179101075788834 9:0.3413687143207132 10:-0.3653826399086397 

C=763.5457130997156,MSE=0.09879762967323047
**************************************************************
original	predicted	AbErr	RelErr
47.0174 	47.0202 	0.0028 	0.0059%
52.5064 	52.4567 	0.0497 	0.0947%
56.9270 	56.7803 	0.1467 	0.2576%
48.9289 	48.9257 	0.0032 	0.0065%
45.6618 	45.6140 	0.0478 	0.1047%
63.1401 	63.3280 	0.1879 	0.2976%
71.9733 	71.9695 	0.0038 	0.0052%
65.2825 	65.3424 	0.0599 	0.0918%
**************************************************************