svm_type epsilon_svr
kernel_type rbf
gamma 1.9999960000059998E-8
nr_class 2
total_sv 8
rho -0.33621561012667683
SV
-437500.5625 1:-0.7202322773370728 2:1.0497109203131492 3:1.1540706456290981 4:0.1386750490563073 5:-1.1922432153471323 6:-0.8109236622649054 7:-0.8256164326326461 8:-0.12392053562965216 9:0.17415889713245863 10:-0.6359367953770104 11:-0.5998574185506276 12:0.18421039378022297 13:-0.5126116271870714 14:-0.13938329587047124 
-437500.5625 1:-0.6794021567602576 2:1.151894525119338 3:1.33713064306965 4:0.41602514716892186 5:0.6920543447524944 6:-0.26139750953708696 7:-0.8012802748561612 8:-0.39651969661658293 9:-0.6765663228980243 10:-0.6205310313774063 11:-0.9493370805986179 12:-0.56069533616359 13:-0.3739892382581071 14:-1.1989794115192602 
437500.5625 1:-0.4861865806899908 2:1.115213231086347 3:1.2034250567037565 4:0.6933752452815365 5:-0.4333639298088889 6:-0.8530219565238644 7:0.4535386218661595 8:-0.7348273347889726 9:-0.4607059355713482 10:-0.09510114763782897 11:-0.2750860261843333 12:0.20457649907280445 13:-0.5826338779112533 14:1.4938726587578115 
-437500.5625 1:-0.8026728085226861 2:0.676784430977742 3:0.6398874175240195 4:0.9707253433941511 5:-0.9353263617820764 6:-0.8838467001739142 7:-0.7360349176227245 8:-1.2730982127544392 9:-0.6095156639205087 10:-0.8383995925260331 11:-0.40176520681383754 12:-0.56069533616359 13:-0.7633545936080215 14:0.4252537814255504 
-267238.39949353214 1:-1.0177138637241185 2:0.030494964682188867 3:-0.017872279161883917 4:1.2480754415067656 5:-1.0149360955202338 6:-0.8838467001739142 7:-1.4128823231874836 8:-1.0549610305808073 9:-0.35980766137007564 10:-0.7222452933873937 11:-0.9954545780121995 12:-0.56069533616359 13:-0.6184203028090742 14:-1.1513479395853947 
437500.5625 1:-0.7017080761691805 2:-0.772126683325397 3:-0.7061419754212126 4:1.52542553961938 5:-0.6417261984978764 6:-0.8658951864654602 7:-1.0731767834419987 8:-0.368824882665095 9:-0.6501185911644816 10:-0.5817876271324248 11:-0.6299115179886919 12:-0.5278627058131253 13:-0.03891675152612311 14:0.3124352379021948 
437500.5625 1:1.7507640326564777 2:-1.3529138388477524 3:-1.2804478497445115 4:-1.52542553961938 5:1.5029506704209092 6:1.9540147541242974 7:2.028424566278288 8:2.353580814862934 9:2.722280608706892 10:0.4455368775904125 11:1.4836551157228461 12:2.9258584589851897 13:1.6604741274436072 14:2.145933900540448 
267238.39949353214 1:1.4854364696304065 2:-1.3695077575769625 3:-1.311855202246567 4:-1.2480754415067656 5:1.6737071992265318 6:0.6426151897789386 7:1.0140546368984622 8:0.7281101911566424 9:-0.6076217911328726 10:2.2551456606335205 11:1.6930371902159773 12:-0.09992763278658025 13:2.4560850509353034 14:-0.12054845096862271 

C=437500.5625,MSE=0.6069253035943949
**************************************************************
original	predicted	AbErr	RelErr
70164.0000 	75059.6003 	4895.6003 	6.9774%
75116.0000 	66211.8534 	8904.1466 	11.8539%
58177.0000 	62527.2634 	4350.2634 	7.4776%
60569.0000 	52912.8531 	7656.1469 	12.6404%
**************************************************************