svm_type epsilon_svr
kernel_type rbf
gamma 3.222448186087933E-6
nr_class 2
total_sv 8
rho 2.220686109662708
SV
-391882.7488071197 1:-1.293979751457606 2:-0.039617675748657974 3:0.4106445181969403 4:-0.3774896460060707 5:0.5779913148609774 6:-0.36211841313647236 7:-0.3794779517334027 8:-0.5367603637127422 9:-0.35529974143115106 10:-0.35658452437023086 
612825.0030231056 1:-0.944788262489721 2:0.7360346083458446 3:0.35839017121678046 4:-0.35829729031462765 5:0.5893037446043917 6:-0.3165912970560594 7:0.1763839894595262 8:-0.52477825495226 9:-0.39363954040469085 10:-0.3596236040429038 
398470.37723033264 1:-0.595596773521836 2:0.4746795981698363 3:0.32778405369983005 4:-0.3391049346231846 5:0.3146819432166287 6:-0.36189077755607035 7:-0.4220613284158853 8:0.0930422175038798 9:-0.755055060702998 10:-0.35117779960037515 
-718253.0223528502 1:-0.25766952613356026 2:0.16346487159082185 3:0.3173331843037981 4:-0.3199125789317415 5:0.3393053319581273 6:-0.36211841313647236 7:-0.4532418128974958 8:-0.4926541631515835 9:-0.8422271624442057 10:-0.35955482713376263 
-490459.261235107 1:0.09152196283432469 2:-0.31761107218455054 3:0.3235477191410813 4:-0.30072022324029846 5:0.2845845954159563 6:-0.36211841313647236 7:-0.4532418128974958 8:-0.8259055869060579 9:-0.06539869162158163 10:-0.3596522610883792 
718253.0223528502 1:0.42944921022260046 2:-0.6068918060083147 3:0.35092526450532896 4:-0.2815278675488554 5:0.3362509759274056 6:-0.3477204626760418 7:-0.4350833131579762 8:-0.658648751987698 9:-0.26284297660030254 10:-0.3363655459350175 
-135070.31604823322 1:0.7786406991904854 2:1.475948661021817 3:0.3849839013763262 4:-0.4926437801547291 5:-0.011002909096267888 6:-0.36200459534627133 7:2.4173411481334064 8:0.8684501803456229 9:0.39128887784883687 10:-0.3518403504917678 
6116.945837021658 1:1.7924224413553127 2:-1.886007185186797 3:-2.4736088124400877 4:2.4696963208195077 5:-2.431114996887217 6:2.4745623720438603 7:-0.45061891849067637 8:2.077254722860839 9:2.2831742953560927 10:2.4747989126624375 

C=718253.0223528502,MSE=0.4442064518815136
**************************************************************
original	predicted	AbErr	RelErr
96.0960 	91.3797 	4.7163 	4.9079%
65.2825 	64.0811 	1.2014 	1.8403%
85.8340 	88.3261 	2.4921 	2.9034%
95.5608 	94.0107 	1.5501 	1.6221%
**************************************************************