svm_type epsilon_svr
kernel_type rbf
gamma 0.06757818400281135
nr_class 2
total_sv 7
rho -0.3435630801072621
SV
-1.2835838351753213 1:-1.4321880408345649 2:-0.577111867914814 3:1.6696926418588767 4:-0.12389865694583801 5:1.2641494928837764 6:-0.6477658500659812 7:-0.5458918655198887 8:-0.5456443094960916 9:-0.12193163272469505 10:-0.3367608699422559 
1.3908328505646121 1:-0.6061819149578855 2:0.15486535601551707 3:-0.8586563643579274 4:0.37169597083751404 5:-0.13337932737175082 6:-0.6357143923903351 7:-0.58652036609301 8:0.517522835049767 9:-1.14860396989905 10:0.35145200988774455 
-1.2183383921561677 1:-0.2065015314691698 2:-0.2880731994854518 3:-1.1775472300068952 4:0.6194932847291901 5:-0.0026893515319247434 6:-0.6477658500659812 7:-0.6162694473149422 8:-0.471188813907633 9:-1.3724838812259714 10:-0.7148457005691682 
-1.6629486700707239 1:0.2065015314691698 2:-0.972767930883479 3:-0.9879210545406356 4:0.8672905986208661 5:-0.2931226388308919 6:-0.6477658500659812 7:-0.6162694473149422 8:-1.0337491703997628 9:0.6226072739731022 10:-0.7272479043716912 
1.2835838351753213 1:0.6061819149578855 2:-1.384488776431662 3:-0.152540876135227 4:1.1150879125125421 5:-0.01890051239413779 6:0.11448884791863856 7:-0.5989445502647376 8:-0.7514035959462207 9:0.11552062434437549 10:2.23687880443129 
1.1944405074259687 1:1.0191849778962252 2:1.5799286145656057 3:0.8867016770957895 4:-1.6106825402958942 5:-1.861969405975991 6:-0.6417401212281582 7:2.1225335918863317 8:1.8264858248807458 9:1.7954959678889522 10:0.2671170240305887 
0.29601370423631074 1:1.4321880408345649 2:0.9608070857931343 3:0.5450328924719001 4:-1.3628852264042182 5:-0.27827908618956476 6:1.343737530834547 7:0.8569099766058969 8:0.9833945908453215 9:0.3297935099055846 10:-0.352993166095558 

C=9861.960758447756,MSE=0.8652243137401626
**************************************************************
original	predicted	AbErr	RelErr
96.0960 	92.3182 	3.7778 	3.9313%
97.7399 	96.6937 	1.0462 	1.0704%
85.8340 	91.8442 	6.0102 	7.0021%
95.5608 	91.8482 	3.7126 	3.8850%
**************************************************************