svm_type epsilon_svr
kernel_type rbf
gamma 1.5559491350503067
nr_class 2
total_sv 10
rho -0.18122907108083103
SV
-1.1281222390890822 1:-0.7663795904646161 2:0.8690467871359634 3:0.9565837064991154 4:0.10685847533192461 5:0.10208564831145248 6:-1.2900390285264183 7:-0.885541622067721 8:-0.7279300352620227 9:0.7329502646070392 10:-0.044548087706833 11:-0.6569866894976919 12:-0.6505924189580231 13:0.24178608582635044 14:-0.5564082170521483 15:-0.14077847568507265 
-1.2746284474524507 1:-0.7224388303094331 2:0.9697043063926958 3:1.1354499540938172 4:0.40606220626131306 5:0.2322020973610085 6:0.7182360135865063 7:-0.28841524588374573 8:-0.7033021194007845 9:-0.5347578377916559 10:-0.33343821738118157 11:-0.6406101743076946 12:-1.0257859203612343 13:-0.558954992547291 14:-0.40704299853193326 15:-1.2796356391636454 
0.05409823138954559 1:-0.5145031405194276 2:0.9335708379415609 3:1.0048074497231771 4:0.7052659371907015 5:0.2322020973610085 6:-0.48122923043786003 7:-0.9312861775404668 8:0.5665603828644689 9:-0.8438879322464993 10:-0.6919688086844726 11:-0.08206915864084097 12:-0.30192515991513963 13:0.26367875822596115 14:-0.6318569873518308 15:1.6146500467982816 
-1.0371119037749261 1:-0.8551008471427052 2:0.5016898578827611 3:0.4541799816375269 4:1.00446966812009 5:0.6225514445096766 6:-1.016218313667772 7:-0.9647813466218531 8:-0.637274557324648 9:-0.9841526787367948 10:-1.2624065313339743 11:-0.8722081008707478 12:-0.4379250777837418 13:-0.558954992547291 14:-0.8265830298023755 15:0.46609519131628857 
-0.988763552023068 1:-1.086524788503515 2:-0.13494744339913517 3:-0.18851099623951398 4:1.3036733990494784 5:0.7526678935592326 6:-1.101065975078077 7:-0.9647813466218531 8:-1.322236460852954 9:-0.7736266473689685 10:-1.0312344906767235 11:-0.7487340594722035 12:-1.0752966278775393 13:-0.558954992547291 14:-0.6704167554832213 15:-1.2284411866569025 
0.4220289709604638 1:-0.7464441244633987 2:-0.9255821459370579 3:-0.8610130153823384 4:1.6028771299788669 5:1.0129007916583446 6:-0.7033007083120852 7:-0.945274849877127 8:-0.9784583046095595 9:0.36897493841621093 10:-0.30408974089858615 11:-0.5994251988021996 12:-0.6828578238562895 13:-0.5236613509818578 14:-0.04600337435923698 15:0.34483747380746016 
2.231502605838163 1:1.8928693823004472 2:-1.4976953964133566 3:-1.4221620274441475 4:-1.6883639102444064 5:-3.018627265693099 6:1.5824853163849717 7:2.118899463359914 8:2.1603268181468325 9:0.6872622039989622 10:2.581027179026137 11:0.49263837117894244 12:1.5862197559495887 13:3.18893783940304 14:1.785085326028451 15:2.3154874746291614 
0.9322078951012271 1:1.6073278594055065 2:-1.514041489284108 3:-1.452849864041278 4:-1.3891601793150177 5:-0.02803080073810354 6:1.7644767822445557 7:0.6939049678673851 8:1.1337962375905057 9:2.08529552150834 10:0.8584100352364507 11:2.416283340059791 12:1.8110076397416883 13:-0.06364986486397638 14:2.642353847129476 15:-0.12053472646526339 
0.2547651525156951 1:1.4375331404169467 2:-1.4598412866074062 3:-1.3327289036467966 4:-1.0899564483856292 5:-1.1990788421841077 6:0.7853732395420658 7:1.419085946665858 8:0.6738197863016087 9:-0.2894256656803735 10:1.0595301070164456 11:0.9454090521780356 12:1.7262324517607106 13:-0.558954992547291 14:-0.14324604379903183 15:0.03218563885556598 
0.5340232865344328 1:0.4407861147061441 2:-0.5066059760393775 3:-0.7461528269759369 4:-0.7907527174562409 5:0.36231854641056455 6:-0.6579916296748445 7:0.8272371615455946 8:0.44269851310020725 9:1.7135232641726814 10:0.445640233159231 11:1.3799680078517598 12:-0.0896812249162474 13:-0.4825296634431952 14:-0.4059653387534754 15:-0.529417505143404 

C=4.9375,MSE=0.8401388260033366
**************************************************************
original	predicted	AbErr	RelErr
58177.0000 	65378.5209 	7201.5209 	12.3786%
60569.0000 	65320.6916 	4751.6916 	7.8451%
46471.0000 	65378.4821 	18907.4821 	40.6866%
51278.0000 	65231.5105 	13953.5105 	27.2115%
**************************************************************