svm_type epsilon_svr
kernel_type sigmoid
gamma 0.0026617215210154033
coef0 0.0
nr_class 2
total_sv 8
rho 0.36468292075784625
SV
-749.6145707275244 1:-1.5338207112521656 2:-0.429686665710671 3:0.4004072904337598 4:-0.28137377009428066 5:0.3754993838706653 6:-0.3342966998088262 7:-0.6747848270798551 8:-0.7147817420197125 9:-0.48279644816539485 10:-0.29784728831624374 
885.2801763900776 1:-1.250794270485397 2:0.3600268883148327 3:0.335891125247724 4:-0.2581437374755578 5:0.3881610134744718 6:-0.27820174747160553 7:-0.12438177910788972 8:-0.6999351277855647 9:-0.5272653474581804 10:-0.3015750603723779 
651.5436486467411 1:-0.9677678297186283 2:0.09393395185244133 3:0.2981030856387607 4:-0.23491370485683497 5:0.08078588636473114 6:-0.3340162250471401 7:-0.7169500098025231 8:0.06558473218825064 9:-0.9464576960171034 10:-0.29121533401326555 
-927.9666956869046 1:-0.6938712741378844 2:-0.2229225737216458 3:0.28519985260155356 4:-0.2116836722381121 5:0.10834603346901683 6:-0.3342966998088262 7:-0.7478242834739498 8:-0.6601312828930895 9:-1.047565357435609 10:-0.30149069777987697 
-647.7867039476768 1:-0.41084483337111577 2:-0.7127196143614896 3:0.2928726679611785 4:-0.18845363961938924 5:0.04709891737993746 6:-0.3342966998088262 7:-0.7478242834739498 8:-1.0730515317712301 9:-0.14655105997878257 10:-0.30161021145258665 
1105.2510199902615 1:-0.13694827779037191 2:-1.00724452082233 3:0.3266745302211474 4:-0.16522360700066638 5:0.10492739347598931 6:-0.31655667113218017 7:-0.7298441109480512 8:-0.8658094047220072 9:-0.37555930362435846 10:-0.2730464436749852 
-12.530746996015628 1:0.14607816297639672 2:1.1133543369592882 3:0.36872524502990306 4:-0.42075396580661784 5:-0.283742429928858 6:-0.3341564624279832 7:2.094567854071978 8:1.026365770695084 9:0.38314377616427864 10:-0.29202802698769104 
-304.1761276689585 1:0.42910460374316534 2:0.6704651504600708 3:0.35490035249003843 4:-0.397523933187895 5:0.05022915358754505 6:-0.28794824544019765 7:0.7810748567023383 8:0.40753538535534417 9:-0.27879032495144385 10:-0.2980037106231725 

C=1105.2510199902615,MSE=1.0542381580253104
**************************************************************
original	predicted	AbErr	RelErr
96.0960 	69.0801 	27.0159 	28.1134%
97.7399 	101.0559 	3.3160 	3.3927%
85.8340 	67.6111 	18.2229 	21.2304%
95.5608 	65.0989 	30.4619 	31.8770%
**************************************************************