svm_type epsilon_svr
kernel_type rbf
gamma 0.04317604120528066
nr_class 2
total_sv 4
rho -0.3429243575537243
SV
-0.31062004268450993 1:-0.7663795904646161 2:0.8690467871359634 3:0.9565837064991154 4:0.10685847533192461 5:0.10208564831145248 6:-1.2900390285264183 7:-0.885541622067721 8:-0.7279300352620227 9:0.7329502646070392 10:-0.044548087706833 11:-0.6569866894976919 12:-0.6505924189580231 13:0.24178608582635044 14:-0.5564082170521483 15:-0.14077847568507265 
-0.8846600776535473 1:-0.7224388303094331 2:0.9697043063926958 3:1.1354499540938172 4:0.40606220626131306 5:0.2322020973610085 6:0.7182360135865063 7:-0.28841524588374573 8:-0.7033021194007845 9:-0.5347578377916559 10:-0.33343821738118157 11:-0.6406101743076946 12:-1.0257859203612343 13:-0.558954992547291 14:-0.40704299853193326 15:-1.2796356391636454 
0.31062004268450993 1:-0.7464441244633987 2:-0.9255821459370579 3:-0.8610130153823384 4:1.6028771299788669 5:1.0129007916583446 6:-0.7033007083120852 7:-0.945274849877127 8:-0.9784583046095595 9:0.36897493841621093 10:-0.30408974089858615 11:-0.5994251988021996 12:-0.6828578238562895 13:-0.5236613509818578 14:-0.04600337435923698 15:0.34483747380746016 
0.8846600776535473 1:1.8928693823004472 2:-1.4976953964133566 3:-1.4221620274441475 4:-1.6883639102444064 5:-3.018627265693099 6:1.5824853163849717 7:2.118899463359914 8:2.1603268181468325 9:0.6872622039989622 10:2.581027179026137 11:0.49263837117894244 12:1.5862197559495887 13:3.18893783940304 14:1.785085326028451 15:2.3154874746291614 

C=0.8846600776535473,MSE=0.5994406026639961
**************************************************************
original	predicted	AbErr	RelErr
58177.0000 	58306.3965 	129.3965 	0.2224%
60569.0000 	54429.9620 	6139.0380 	10.1356%
46471.0000 	57411.8582 	10940.8582 	23.5434%
51278.0000 	53513.2086 	2235.2086 	4.3590%
**************************************************************