svm_type epsilon_svr
kernel_type rbf
gamma 4.49570540402008
nr_class 2
total_sv 8
rho -2.150368256820679E-7
SV
-0.8268333765615177 1:-0.5210169553168408 2:0.8979057257505098 3:0.9206402147947745 4:-0.12389865694583801 5:-0.9885923724683692 6:-0.5458918498471568 7:-0.5456443044992261 8:-0.012934080832261061 9:0.20101194557778465 10:-0.5162679103241393 11:-0.4853700411756581 12:0.04968534442142386 13:-0.5487198259629722 14:-0.308913996070555 
-0.9537810762707092 1:-0.48394066326437785 2:0.9911946323219913 3:1.0847744545309634 4:0.12389865694583801 5:0.6331637264767795 6:-0.015547459786541417 7:-0.5254173575472519 8:-0.24623199028848747 9:-0.5340360026255287 10:-0.5014506272453734 11:-0.8144121495559002 12:-0.5817461977387078 13:-0.43449816897940147 14:-1.2174210825433887 
0.12140837248589834 1:-0.3084888882937713 2:0.9577063068860748 3:0.9648920931550216 4:0.37169597083751404 5:-0.33544865687617115 6:-0.5865206608337347 7:0.5175227602581104 8:-0.5357650337980232 9:-0.347527208637782 10:0.003908491952638571 11:-0.17959126406582462 12:0.0669490071316843 13:-0.6064165484421498 14:1.091454112956727 
-0.7411769334039991 1:-0.5958780913609413 2:0.5574410838186925 3:0.45961610024165606 4:0.6194932847291901 5:-0.7674720552670363 6:-0.6162694358259917 7:-0.47118881449850036 8:-0.9964321543271708 9:-0.47610254991169365 10:-0.7109968817891649 11:-0.29886225236296265 12:-0.5817461977387078 13:-0.7553262574554576 14:0.17521083076938676 
-0.7223120512714539 1:-0.7911487604964486 2:-0.03259131671888279 3:-0.13014075135945374 4:0.8672905986208661 5:-0.8359896683867125 6:-0.6162694358259917 7:-1.0337491287716245 8:-0.8097443142342945 9:-0.2603485666007643 10:-0.5992795316339176 11:-0.8578326979599487 12:-0.5817461977387078 13:-0.6359037386495113 14:-1.1765814369916943 
0.4247125128486384 1:-0.5041958271194056 2:-0.765347770900007 3:-0.7472533095832616 4:1.1150879125125421 5:-0.5147795583175269 6:-0.5989445377458628 7:-0.7514035755075411 8:-0.22253000171937729 9:-0.5111844984175359 10:-0.4641871725963404 11:-0.5136665783378469 12:-0.5539150808845911 13:-0.15840615426347354 14:0.07847921316265932 
1.8711491756116256 1:1.7228015677639354 2:-1.2955795903020173 3:-1.2621842577752265 4:-1.6106825402958942 5:1.3310768849990633 6:2.122533612191575 7:1.826485939475092 8:2.1073801697776626 9:2.402653076891595 10:0.5238948206512797 11:1.4762987812574604 12:2.3736882299990287 13:1.2418528050461768 14:1.6505371920892642 
0.8268333765615177 1:1.4818676180878492 2:-1.3107290708563606 3:-1.2903445440044745 4:-1.3628852264042182 5:1.4780416998399741 6:0.8569097676737044 7:0.9833944810909414 8:0.7162574054219527 9:-0.4744661962760742 10:2.264378810985017 11:1.6734362022006801 12:-0.19116890745142173 13:1.897417888706789 14:-0.2927648333723992 

C=100.15982420459888,MSE=0.06755784341288354
**************************************************************
original	predicted	AbErr	RelErr
45187.0000 	45191.6576 	4.6576 	0.0103%
42506.0000 	42370.4753 	135.5247 	0.3188%
66115.0000 	66264.7226 	149.7226 	0.2265%
47091.0000 	47095.2200 	4.2200 	0.0090%
47650.0000 	47514.4753 	135.5247 	0.2844%
73024.0000 	73005.1380 	18.8620 	0.0258%
105000.0000 	105149.7226 	149.7226 	0.1426%
81960.0000 	81941.5886 	18.4114 	0.0225%
**************************************************************