svm_type epsilon_svr
kernel_type rbf
gamma 0.02162012132273192
nr_class 2
total_sv 8
rho -0.46453850938586994
SV
-2.6370597206222137 1:-1.4321880408345649 2:-0.577111867914814 3:1.6696926418588767 4:-0.12389865694583801 5:1.2641494928837764 6:-0.6477658500659812 7:-0.5458918655198887 8:-0.5456443094960916 9:-0.12193163272469505 10:-0.3367608699422559 
0.529951480805848 1:-1.0191849778962252 2:0.5268407183411515 3:0.075238313614038 4:0.12389865694583801 5:1.3241908294104954 6:1.7625256850632514 7:-0.015547891984707948 8:-0.5254173610261262 9:-0.22039789226229803 10:-0.723600197370949 
2.534266493839512 1:-0.6061819149578855 2:0.15486535601551707 3:-0.8586563643579274 4:0.37169597083751404 5:-0.13337932737175082 6:-0.6357143923903351 7:-0.58652036609301 8:0.517522835049767 9:-1.14860396989905 10:0.35145200988774455 
-1.3706050551531068 1:-0.2065015314691698 2:-0.2880731994854518 3:-1.1775472300068952 4:0.6194932847291901 5:-0.0026893515319247434 6:-0.6477658500659812 7:-0.6162694473149422 8:-0.471188813907633 9:-1.3724838812259714 10:-0.7148457005691682 
-4.651816698805023 1:0.2065015314691698 2:-0.972767930883479 3:-0.9879210545406356 4:0.8672905986208661 5:-0.2931226388308919 6:-0.6477658500659812 7:-0.6162694473149422 8:-1.0337491703997628 9:0.6226072739731022 10:-0.7272479043716912 
3.566905085682282 1:0.6061819149578855 2:-1.384488776431662 3:-0.152540876135227 4:1.1150879125125421 5:-0.01890051239413779 6:0.11448884791863856 7:-0.5989445502647376 8:-0.7514035959462207 9:0.11552062434437549 10:2.23687880443129 
1.850921090131604 1:1.0191849778962252 2:1.5799286145656057 3:0.8867016770957895 4:-1.6106825402958942 5:-1.861969405975991 6:-0.6417401212281582 7:2.1225335918863317 8:1.8264858248807458 9:1.7954959678889522 10:0.2671170240305887 
0.17743732412109686 1:1.4321880408345649 2:0.9608070857931343 3:0.5450328924719001 4:-1.3628852264042182 5:-0.27827908618956476 6:1.343737530834547 7:0.8569099766058969 8:0.9833945908453215 9:0.3297935099055846 10:-0.352993166095558 

C=45.65191885812853,MSE=0.09541996826126033
**************************************************************
original	predicted	AbErr	RelErr
47.0174 	47.0176 	0.0002 	0.0005%
52.5064 	52.4381 	0.0683 	0.1301%
56.9270 	56.7822 	0.1448 	0.2544%
48.9289 	48.9250 	0.0039 	0.0080%
45.6618 	45.6406 	0.0212 	0.0464%
63.1401 	63.3129 	0.1728 	0.2737%
71.9733 	71.9677 	0.0056 	0.0077%
65.2825 	65.3515 	0.0690 	0.1058%
**************************************************************