svm_type epsilon_svr
kernel_type rbf
gamma 1.571535639393811E-4
nr_class 2
total_sv 8
rho 2.781063835194343
SV
-8915.800696865042 1:-1.293979751457606 2:-0.03961767574865797 3:0.41064451819694087 4:-0.3774896460060707 5:0.5779913148609774 6:-0.36211841313647236 7:-0.3794779517334027 8:-0.5367603637127422 9:-0.35529974143115106 10:-0.35658452437023086 
14617.924724458053 1:-0.944788262489721 2:0.7360346083458446 3:0.35839017121678096 4:-0.35829729031462765 5:0.5893037446043917 6:-0.3165912970560594 7:0.1763839894595262 8:-0.52477825495226 9:-0.39363954040469085 10:-0.3596236040429038 
-17869.303281250002 1:-0.25766952613356026 2:0.16346487159082185 3:0.3173331843037986 4:-0.3199125789317415 5:0.3393053319581273 6:-0.36211841313647236 7:-0.4532418128974958 8:-0.4926541631515835 9:-0.8422271624442057 10:-0.35955482713376263 
17869.303281250002 1:0.42944921022260046 2:-0.6068918060083147 3:0.3509252645053295 4:-0.2815278675488554 5:0.3362509759274056 6:-0.3477204626760418 7:-0.4350833131579762 8:-0.658648751987698 9:-0.26284297660030254 10:-0.3363655459350175 
9525.023726493335 1:-0.595596773521836 2:0.47467959816983624 3:0.32778405369983055 4:-0.3391049346231846 5:0.3146819432166287 6:-0.36189077755607035 7:-0.4220613284158853 8:0.0930422175038798 9:-0.755055060702998 10:-0.35117779960037515 
-12103.50681429276 1:0.09152196283432469 2:-0.3176110721845505 3:0.3235477191410818 4:-0.30072022324029846 5:0.2845845954159563 6:-0.36211841313647236 7:-0.4532418128974958 8:-0.8259055869060579 9:-0.06539869162158163 10:-0.3596522610883792 
-3226.5233342596557 1:0.7786406991904854 2:1.4759486610218169 3:0.38498390137632676 4:-0.4926437801547291 5:-0.011002909096267888 6:-0.36200459534627133 7:2.4173411481334064 8:0.8684501803456229 9:0.39128887784883687 10:-0.3518403504917678 
102.88239446606887 1:1.7924224413553127 2:-1.8860071851867968 3:-2.473608812440087 4:2.4696963208195077 5:-2.431114996887217 6:2.4745623720438603 7:-0.45061891849067637 8:2.077254722860839 9:2.2831742953560927 10:2.4747989126624375 
